<?xml version="1.0"?>
<opencv_storage>
<cascade>
  <stageType>BOOST</stageType>
  <featureType>LBP</featureType>
  <height>50</height>
  <width>50</width>
  <stageParams>
    <boostType>GAB</boostType>
    <minHitRate>9.9000000953674316e-01</minHitRate>
    <maxFalseAlarm>5.0000000000000000e-01</maxFalseAlarm>
    <weightTrimRate>9.4999999999999996e-01</weightTrimRate>
    <maxDepth>1</maxDepth>
    <maxWeakCount>100</maxWeakCount></stageParams>
  <featureParams>
    <maxCatCount>256</maxCatCount>
    <featSize>1</featSize></featureParams>
  <stageNum>9</stageNum>
  <stages>
    <!-- stage 0 -->
    <_>
      <maxWeakCount>18</maxWeakCount>
      <stageThreshold>-1.5643081665039062e+00</stageThreshold>
      <weakClassifiers>
        <_>
          <internalNodes>
            0 -1 15 -239023410 1608478639 10889504 1437547151 1274264495
            -1478019497 2120085503 1736441727</internalNodes>
          <leafValues>
            -6.8927490711212158e-01 -1.6287153959274292e-01</leafValues></_>
        <_>
          <internalNodes>
            0 -1 156 -145759232 -776344281 1653414421 289196846
            875235032 712126122 77681338 170912591</internalNodes>
          <leafValues>
            -3.9120379090309143e-01 1.4940239489078522e-01</leafValues></_>
        <_>
          <internalNodes>
            0 -1 6 -1062541086 -1607941626 -1058894833 -2117637630
            -993032257 972245569 640352879 1081558611</internalNodes>
          <leafValues>
            -3.2940247654914856e-01 2.0093615353107452e-01</leafValues></_>
        <_>
          <internalNodes>
            0 -1 69 1672309504 825060215 -706773003 2012216994
            1325186511 -926155281 -134631684 -1057511482</internalNodes>
          <leafValues>
            -2.2185656428337097e-01 2.6563936471939087e-01</leafValues></_>
        <_>
          <internalNodes>
            0 -1 39 -689113158 1050159786 954083104 1841573678
            1366036972 1123098702 1965849036 2096591823</internalNodes>
          <leafValues>
            -2.3280596733093262e-01 2.3231874406337738e-01</leafValues></_>
        <_>
          <internalNodes>
            0 -1 111 1896871700 349487590 600444980 1071981550
            2084272007 1343280865 1668694408 1962409959</internalNodes>
          <leafValues>
            -2.5424975156784058e-01 1.9029380381107330e-01</leafValues></_>
        <_>
          <internalNodes>
            0 -1 175 -923294464 1970475783 -2089144560 95862591
            -90504056 -1149542498 1812409518 137547627</internalNodes>
          <leafValues>
            -2.8242251276969910e-01 1.6645509004592896e-01</leafValues></_>
        <_>
          <internalNodes>
            0 -1 154 143133009 -394259 -537582593 -524584 -436789763
            -102244387 -69222465 -299368112</internalNodes>
          <leafValues>
            -2.0334665477275848e-01 2.3027668893337250e-01</leafValues></_>
        <_>
          <internalNodes>
            0 -1 120 -269488337 720817111 -876956126 -1225001028
            1863281505 1109883574 -2656300 -726139145</internalNodes>
          <leafValues>
            -2.7209448814392090e-01 1.7798191308975220e-01</leafValues></_>
        <_>
          <internalNodes>
            0 -1 228 429006293 -1108071204 -884768809 -1121448744
            463512048 -502308 993737352 -1888744772</internalNodes>
          <leafValues>
            -1.7213872075080872e-01 2.6344272494316101e-01</leafValues></_>
        <_>
          <internalNodes>
            0 -1 36 1617865290 447029543 13249724 224660288 1141965464
            116795993 1684892539 1769990939</internalNodes>
          <leafValues>
            -2.8540262579917908e-01 1.6718503832817078e-01</leafValues></_>
        <_>
          <internalNodes>
            0 -1 46 -966349662 650800896 1707605682 -49023470 -302490417
            -37373017 -581631499 -998940329</internalNodes>
          <leafValues>
            -2.5657647848129272e-01 1.7906939983367920e-01</leafValues></_>
        <_>
          <internalNodes>
            0 -1 244 -723620602 585603639 -269037790 719743620
            -715843067 1433689589 -1563067820 -1057489273</internalNodes>
          <leafValues>
            -3.4963971376419067e-01 1.3385327160358429e-01</leafValues></_>
        <_>
          <internalNodes>
            0 -1 220 140774421 1069330031 -420294849 -36903146
            -196043521 -536888779 -558081539 -1332193696</internalNodes>
          <leafValues>
            -2.3947209119796753e-01 1.8633726239204407e-01</leafValues></_>
        <_>
          <internalNodes>
            0 -1 97 -822546910 1722736235 2124412454 -521212730
            2009293062 650411527 -671252988 -187435017</internalNodes>
          <leafValues>
            -3.9616143703460693e-01 1.1570502072572708e-01</leafValues></_>
        <_>
          <internalNodes>
            0 -1 62 -207424566 455387108 1916517934 -410329470
            -156563814 -397384547 -504363892 1641505878</internalNodes>
          <leafValues>
            -2.5064930319786072e-01 1.7559219896793365e-01</leafValues></_>
        <_>
          <internalNodes>
            0 -1 17 1614997002 -1091068050 -1933922753 -683310312
            1815430362 414612993 -1990758177 1212634437</internalNodes>
          <leafValues>
            -2.6931184530258179e-01 1.6862171888351440e-01</leafValues></_>
        <_>
          <internalNodes>
            0 -1 178 1685030816 526666949 256449854 9862866 981673120
            -1394920425 451553228 1003966054</internalNodes>
          <leafValues>
            -2.8352168202400208e-01 1.5538847446441650e-01</leafValues></_></weakClassifiers></_>
    <!-- stage 1 -->
    <_>
      <maxWeakCount>22</maxWeakCount>
      <stageThreshold>-1.3752958774566650e+00</stageThreshold>
      <weakClassifiers>
        <_>
          <internalNodes>
            0 -1 61 1567995648 2145644503 909312789 2079801111
            2042962910 -1142812114 1842654427 1601683435</internalNodes>
          <leafValues>
            -6.6533589363098145e-01 -2.9959905147552490e-01</leafValues></_>
        <_>
          <internalNodes>
            0 -1 225 -268435673 587136423 2030038752 -1328090186
            1868521287 359645143 -150999232 -134217745</internalNodes>
          <leafValues>
            -3.3364388346672058e-01 1.2155619263648987e-01</leafValues></_>
        <_>
          <internalNodes>
            0 -1 54 -269504625 720170983 -1478688844 -125940818
            -134260921 1601568119 1776269106 -153617945</internalNodes>
          <leafValues>
            -2.5459933280944824e-01 1.8506208062171936e-01</leafValues></_>
        <_>
          <internalNodes>
            0 -1 10 -894524798 462292896 578323031 -739702207 -806753793
            -566483190 2060258445 1163346183</internalNodes>
          <leafValues>
            -2.2672623395919800e-01 2.1170721948146820e-01</leafValues></_>
        <_>
          <internalNodes>
            0 -1 210 -16781533 12581309 -560042258 -487071890 1184323427
            1140783327 -872417564 -186394378</internalNodes>
          <leafValues>
            -3.0856597423553467e-01 1.3656947016716003e-01</leafValues></_>
        <_>
          <internalNodes>
            0 -1 113 11541333 1530229119 -268853385 -7480004 -1226838530
            -610361422 -117571587 -324008512</internalNodes>
          <leafValues>
            -1.9186277687549591e-01 2.3400649428367615e-01</leafValues></_>
        <_>
          <internalNodes>
            0 -1 140 -901265664 -750917697 -1401601855 -1144674397
            -1624148696 -36113754 -506928948 8742482</internalNodes>
          <leafValues>
            -2.5685968995094299e-01 1.7473885416984558e-01</leafValues></_>
        <_>
          <internalNodes>
            0 -1 76 2002238454 904931246 1541351452 401518570 2073032164
            1551133569 1254255308 1626470615</internalNodes>
          <leafValues>
            -2.4667617678642273e-01 1.6541999578475952e-01</leafValues></_>
        <_>
          <internalNodes>
            0 -1 128 -457184509 743287575 -275192028 1088617071
            800808055 964615143 -311558796 -169353486</internalNodes>
          <leafValues>
            -2.8190976381301880e-01 1.4952723681926727e-01</leafValues></_>
        <_>
          <internalNodes>
            0 -1 71 640132645 2131949999 -1241654277 -705940482
            377251839 -620792234 1423943359 -459931705</internalNodes>
          <leafValues>
            -1.5171311795711517e-01 2.6774317026138306e-01</leafValues></_>
        <_>
          <internalNodes>
            0 -1 42 1616881470 364707815 -1778898660 -1111823454
            719273644 2022025092 2113882862 412565327</internalNodes>
          <leafValues>
            -2.2336870431900024e-01 1.7718657851219177e-01</leafValues></_>
        <_>
          <internalNodes>
            0 -1 160 536874240 1038659346 -1611259235 -1314901061
            1323643837 -1401128353 1773674412 1048576</internalNodes>
          <leafValues>
            -5.0917178392410278e-01 7.9793669283390045e-02</leafValues></_>
        <_>
          <internalNodes>
            0 -1 150 2063593127 -1394147701 -288364048 -254190002
            1976774433 87351147 -138423200 -252338955</internalNodes>
          <leafValues>
            -2.8346490859985352e-01 1.4558197557926178e-01</leafValues></_>
        <_>
          <internalNodes>
            0 -1 41 1618472706 111995822 1250828904 1617492932
            1727927814 107044214 1935165762 1692919314</internalNodes>
          <leafValues>
            -4.7574806213378906e-01 8.3749592304229736e-02</leafValues></_>
        <_>
          <internalNodes>
            0 -1 155 -570449400 -5197005 -1331347935 993066508 102337256
            -1095844130 2128219071 18801763</internalNodes>
          <leafValues>
            -2.5233167409896851e-01 1.5767650306224823e-01</leafValues></_>
        <_>
          <internalNodes>
            0 -1 30 784086231 165435262 2122995038 2113308668
            -1854001479 -269672514 2138509241 -1158644204</internalNodes>
          <leafValues>
            -2.2359427809715271e-01 1.7330631613731384e-01</leafValues></_>
        <_>
          <internalNodes>
            0 -1 206 -419432669 133358062 -1502389704 1929305582
            1017984845 146144086 1710538880 -185076185</internalNodes>
          <leafValues>
            -2.3540000617504120e-01 1.6907322406768799e-01</leafValues></_>
        <_>
          <internalNodes>
            0 -1 190 -1964498153 -1625596931 996583295 -645931443
            -1363292931 -10243 -319522369 -560849743</internalNodes>
          <leafValues>
            -1.4067229628562927e-01 2.7716141939163208e-01</leafValues></_>
        <_>
          <internalNodes>
            0 -1 232 -291077104 -1216366657 -1481425547 -1826390157
            905844200 -1342782073 2085071752 2148223</internalNodes>
          <leafValues>
            -2.5665000081062317e-01 1.5232951939105988e-01</leafValues></_>
        <_>
          <internalNodes>
            0 -1 207 -543312089 -1437080213 -332923326 1960300518
            1944399172 1136063479 -1231620763 -2072548929</internalNodes>
          <leafValues>
            -2.9738280177116394e-01 1.3661518692970276e-01</leafValues></_>
        <_>
          <internalNodes>
            0 -1 25 551958102 -348341094 -1323648356 2105058054
            1619092934 1808669012 2136853196 2020570655</internalNodes>
          <leafValues>
            -2.5884383916854858e-01 1.5643677115440369e-01</leafValues></_>
        <_>
          <internalNodes>
            0 -1 78 1246957821 1476933009 1039784381 510950126
            -1509547348 -1196608065 1241004220 -1993330274</internalNodes>
          <leafValues>
            -1.8246872723102570e-01 2.1495544910430908e-01</leafValues></_></weakClassifiers></_>
    <!-- stage 2 -->
    <_>
      <maxWeakCount>28</maxWeakCount>
      <stageThreshold>-1.3627458810806274e+00</stageThreshold>
      <weakClassifiers>
        <_>
          <internalNodes>
            0 -1 49 -237007956 -10928131 -2138824188 1374641371
            215959295 1030163304 -2050176514 1476127695</internalNodes>
          <leafValues>
            -6.5093886852264404e-01 -3.3697348833084106e-01</leafValues></_>
        <_>
          <internalNodes>
            0 -1 202 -874512816 421139296 -1147255024 457565147
            -1712435392 -1158684971 -63018710 721414887</internalNodes>
          <leafValues>
            -2.8005695343017578e-01 1.0872722417116165e-01</leafValues></_>
        <_>
          <internalNodes>
            0 -1 208 486540341 -1319043 -820511233 -540058625 -538538273
            -276824131 -674369 -298673104</internalNodes>
          <leafValues>
            -1.6525058448314667e-01 2.1552617847919464e-01</leafValues></_>
        <_>
          <internalNodes>
            0 -1 37 -286790138 713469932 -497555392 -2136199262
            1734280983 1350364951 -428344255 1356332918</internalNodes>
          <leafValues>
            -4.3445816636085510e-01 8.2117088139057159e-02</leafValues></_>
        <_>
          <internalNodes>
            0 -1 68 2760720 -420987055 368304829 -1653637392 1593240031
            -6918211 -286228839 -1946106800</internalNodes>
          <leafValues>
            -2.1173810958862305e-01 1.7417328059673309e-01</leafValues></_>
        <_>
          <internalNodes>
            0 -1 7 -431764314 1957150410 -84676843 -8607982 -621359889
            -550578374 -584083505 -261892585</internalNodes>
          <leafValues>
            -1.5454664826393127e-01 2.0924086868762970e-01</leafValues></_>
        <_>
          <internalNodes>
            0 -1 53 1475867646 1000322045 -1644393192 2006218344
            1860533740 1841654727 813971100 2106911158</internalNodes>
          <leafValues>
            -1.8910165131092072e-01 1.7551003396511078e-01</leafValues></_>
        <_>
          <internalNodes>
            0 -1 200 -421571328 1605103111 -738313421 1377050555
            -789361588 -16797986 -858128708 -1058801617</internalNodes>
          <leafValues>
            -1.9269174337387085e-01 1.7747457325458527e-01</leafValues></_>
        <_>
          <internalNodes>
            0 -1 27 -419437394 205745902 948084800 539295082 1715043924
            1154470267 1714771472 1885726690</internalNodes>
          <leafValues>
            -4.3436425924301147e-01 7.8671194612979889e-02</leafValues></_>
        <_>
          <internalNodes>
            0 -1 164 723066865 993559262 490759165 -752186116
            -1822346088 -1397015312 859869160 -1147341640</internalNodes>
          <leafValues>
            -1.5088410675525665e-01 2.2217568755149841e-01</leafValues></_>
        <_>
          <internalNodes>
            0 -1 188 -1058560510 1084034 1049920096 16288456 1811382784
            67410980 1709536512 1085663091</internalNodes>
          <leafValues>
            -4.7222805023193359e-01 7.0875100791454315e-02</leafValues></_>
        <_>
          <internalNodes>
            0 -1 130 136454193 -537920071 -1972076777 -545440263
            -1747071333 -24664413 993115389 -25260654</internalNodes>
          <leafValues>
            -1.2466002255678177e-01 2.6361459493637085e-01</leafValues></_>
        <_>
          <internalNodes>
            0 -1 127 -945305809 50167146 251594458 -357893406 902709025
            125257566 -146540571 -1001130398</internalNodes>
          <leafValues>
            -2.8250068426132202e-01 1.1740596592426300e-01</leafValues></_>
        <_>
          <internalNodes>
            0 -1 265 285479674 1502609456 603984013 1966739484 457852056
            945316868 319072216 453258456</internalNodes>
          <leafValues>
            -2.5603303313255310e-01 1.3548170030117035e-01</leafValues></_>
        <_>
          <internalNodes>
            0 -1 18 -391459218 -1107718738 242131709 496044258
            1056255416 -1077516021 -707327095 1600616991</internalNodes>
          <leafValues>
            -2.0878742635250092e-01 1.6194561123847961e-01</leafValues></_>
        <_>
          <internalNodes>
            0 -1 185 -84948185 40351719 368556136 988796126 2031427169
            568441598 1987313236 -790370521</internalNodes>
          <leafValues>
            -2.7846089005470276e-01 1.2034222483634949e-01</leafValues></_>
        <_>
          <internalNodes>
            0 -1 89 -1393823961 16506209 2032654182 -1842621756
            771175219 560920786 -10639500 -182587401</internalNodes>
          <leafValues>
            -2.6139265298843384e-01 1.2523521482944489e-01</leafValues></_>
        <_>
          <internalNodes>
            0 -1 267 -721317686 -649382690 50606805 1566263680 347772568
            -1188420874 1511586698 -146046770</internalNodes>
          <leafValues>
            -1.2475847452878952e-01 2.7150803804397583e-01</leafValues></_>
        <_>
          <internalNodes>
            0 -1 229 -1472987132 734224188 -1684798153 1495179154
            -2062003992 -1560868178 -867666659 4212016</internalNodes>
          <leafValues>
            -3.7102758884429932e-01 8.8550157845020294e-02</leafValues></_>
        <_>
          <internalNodes>
            0 -1 193 -477156606 552068699 251427874 15742793 393290496
            1278407251 2058477316 1894186707</internalNodes>
          <leafValues>
            -4.6540275216102600e-01 7.1285434067249298e-02</leafValues></_>
        <_>
          <internalNodes>
            0 -1 168 1003202356 357841940 -935045184 90242182 80543912
            1050798448 945221774 1751514738</internalNodes>
          <leafValues>
            -2.5715279579162598e-01 1.2865002453327179e-01</leafValues></_>
        <_>
          <internalNodes>
            0 -1 119 1211412228 73591924 691095216 969508960 509034192
            70643380 -1549295720 309485398</internalNodes>
          <leafValues>
            -3.2784733176231384e-01 1.0069770365953445e-01</leafValues></_>
        <_>
          <internalNodes>
            0 -1 249 2130318164 322334423 1938381375 466721970
            1844516480 452885789 1782808200 174868024</internalNodes>
          <leafValues>
            -3.2316103577613831e-01 9.9006935954093933e-02</leafValues></_>
        <_>
          <internalNodes>
            0 -1 13 1885849090 523709872 -994990430 -543118301
            1566518525 1519664788 -1015857667 1145135442</internalNodes>
          <leafValues>
            -2.7149784564971924e-01 1.2147002667188644e-01</leafValues></_>
        <_>
          <internalNodes>
            0 -1 248 -834731456 2064514811 -1634002120 -1748387029
            -805432171 -19211561 2054572170 -2135858369</internalNodes>
          <leafValues>
            -2.0627881586551666e-01 1.6332645714282990e-01</leafValues></_>
        <_>
          <internalNodes>
            0 -1 31 1531442426 -579684284 86029785 1974222553
            -1835485254 -1393945952 2070390747 -1692714933</internalNodes>
          <leafValues>
            -1.2811370193958282e-01 2.7529472112655640e-01</leafValues></_>
        <_>
          <internalNodes>
            0 -1 237 -1483764990 968236924 -1930253950 687107326
            862527440 900834113 1590582016 207077206</internalNodes>
          <leafValues>
            -2.9285538196563721e-01 1.1480643600225449e-01</leafValues></_>
        <_>
          <internalNodes>
            0 -1 152 -872966378 981401582 86549096 477151229 1177013990
            1858430947 376535884 951932915</internalNodes>
          <leafValues>
            -2.2752735018730164e-01 1.4705315232276917e-01</leafValues></_></weakClassifiers></_>
    <!-- stage 3 -->
    <_>
      <maxWeakCount>25</maxWeakCount>
      <stageThreshold>-1.4444102048873901e+00</stageThreshold>
      <weakClassifiers>
        <_>
          <internalNodes>
            0 -1 148 777980439 716152762 -285352323 -321595912 838824273
            -412106913 921650004 -391971936</internalNodes>
          <leafValues>
            -6.6749250888824463e-01 -3.4581682085990906e-01</leafValues></_>
        <_>
          <internalNodes>
            0 -1 214 -1905841097 747646939 -570501384 -1602323554
            2004688436 -1342177505 -117903296 -320799468</internalNodes>
          <leafValues>
            -3.1958544254302979e-01 1.0677586495876312e-01</leafValues></_>
        <_>
          <internalNodes>
            0 -1 147 -1359008221 -1909576278 -553797648 -1434151056
            -1135195852 -1444415641 -277329932 -320813280</internalNodes>
          <leafValues>
            -2.5701200962066650e-01 1.6158652305603027e-01</leafValues></_>
        <_>
          <internalNodes>
            0 -1 48 -261318760 -176855549 1013162119 1539381085
            -1547591284 -1830740786 1565552638 1004482895</internalNodes>
          <leafValues>
            -1.7263424396514893e-01 2.1783855557441711e-01</leafValues></_>
        <_>
          <internalNodes>
            0 -1 122 -1943066097 170806446 1055194898 539163090
            804664900 2076136361 -654561216 -2131689628</internalNodes>
          <leafValues>
            -3.1558662652969360e-01 1.2032235413789749e-01</leafValues></_>
        <_>
          <internalNodes>
            0 -1 115 -995120379 1577057983 -168099851 -135020673
            1900498377 -85164385 -96634708 -529272250</internalNodes>
          <leafValues>
            -1.3528235256671906e-01 2.6524338126182556e-01</leafValues></_>
        <_>
          <internalNodes>
            0 -1 181 711928379 648346538 -1964015626 -1662190870
            -1765595386 -1897152689 -406885552 -728730124</internalNodes>
          <leafValues>
            -2.5882995128631592e-01 1.4248220622539520e-01</leafValues></_>
        <_>
          <internalNodes>
            0 -1 23 -804885726 1067998234 216016156 568892578 1345847484
            -1716566323 1700075513 1823959335</internalNodes>
          <leafValues>
            -2.5562930107116699e-01 1.4230211079120636e-01</leafValues></_>
        <_>
          <internalNodes>
            0 -1 246 -1879064045 785345312 -588361956 -1439924514
            -1829028603 -1210844309 -1869957420 -594084832</internalNodes>
          <leafValues>
            -2.1830455958843231e-01 1.6998083889484406e-01</leafValues></_>
        <_>
          <internalNodes>
            0 -1 8 1815134382 -1395248118 -1605130317 354201088
            -692115732 1869981932 1947848033 1075963411</internalNodes>
          <leafValues>
            -2.8978738188743591e-01 1.2361660599708557e-01</leafValues></_>
        <_>
          <internalNodes>
            0 -1 118 -1901679821 -1967592860 -1965044750 -1967378992
            -1560380894 -16809996 -1571127488 -156842426</internalNodes>
          <leafValues>
            -2.2425213456153870e-01 1.6114130616188049e-01</leafValues></_>
        <_>
          <internalNodes>
            0 -1 85 -1824553099 1503784743 804392318 396667775
            1387535516 473243235 1760626392 -619516015</internalNodes>
          <leafValues>
            -1.4569337666034698e-01 2.5417977571487427e-01</leafValues></_>
        <_>
          <internalNodes>
            0 -1 195 -1139538512 -1242171654 523441821 -69421643
            -121653331 -1393778700 -204513393 -1180545988</internalNodes>
          <leafValues>
            -1.7546726763248444e-01 1.9956344366073608e-01</leafValues></_>
        <_>
          <internalNodes>
            0 -1 55 -1979479872 -583855104 -1396944931 761859104
            -284567101 -273836154 147279613 1080317702</internalNodes>
          <leafValues>
            -2.5373718142509460e-01 1.3828368484973907e-01</leafValues></_>
        <_>
          <internalNodes>
            0 -1 199 776275459 -1594951829 -53870923 -2097400938
            1957654373 744879447 -286132396 -931875356</internalNodes>
          <leafValues>
            -2.6935240626335144e-01 1.3216915726661682e-01</leafValues></_>
        <_>
          <internalNodes>
            0 -1 141 -4331132 1181397673 1564224028 468701629 4090509
            212712938 1413068216 137089151</internalNodes>
          <leafValues>
            -2.3325569927692413e-01 1.6032075881958008e-01</leafValues></_>
        <_>
          <internalNodes>
            0 -1 109 -966826225 -1392544914 -456002070 -85050450
            1904166455 641171309 -1428035728 -454886943</internalNodes>
          <leafValues>
            -2.4591010808944702e-01 1.4316868782043457e-01</leafValues></_>
        <_>
          <internalNodes>
            0 -1 66 1821829380 1523108704 892864300 -550564892
            1414858942 -694418192 -76267284 1355656578</internalNodes>
          <leafValues>
            -2.4501782655715942e-01 1.4536125957965851e-01</leafValues></_>
        <_>
          <internalNodes>
            0 -1 219 -1469635037 740986684 -859850500 -259559680
            859796759 -2103284867 -701209392 -179110128</internalNodes>
          <leafValues>
            -2.3430973291397095e-01 1.4926996827125549e-01</leafValues></_>
        <_>
          <internalNodes>
            0 -1 236 2001190736 380789844 -1644982384 190884700
            401149120 -1627763716 -555209128 1785928599</internalNodes>
          <leafValues>
            -2.4536113440990448e-01 1.4616133272647858e-01</leafValues></_>
        <_>
          <internalNodes>
            0 -1 171 972263827 1061133874 1540752600 -237995098
            450702253 -1343224520 -245698324 -1411677416</internalNodes>
          <leafValues>
            -1.4837215840816498e-01 2.4728292226791382e-01</leafValues></_>
        <_>
          <internalNodes>
            0 -1 87 2053562288 1905564534 -1736014408 -1177928986
            1143162620 -605459333 -1476850538 1074652174</internalNodes>
          <leafValues>
            -2.2097045183181763e-01 1.6084377467632294e-01</leafValues></_>
        <_>
          <internalNodes>
            0 -1 133 -1523565291 513030993 247389427 -1162290020
            -1628291633 -34884903 1835947262 -1365098176</internalNodes>
          <leafValues>
            -2.4996215105056763e-01 1.4234977960586548e-01</leafValues></_>
        <_>
          <internalNodes>
            0 -1 32 -2008620336 360356946 239470924 -1187432361
            -1080095509 -390396946 241326001 944231931</internalNodes>
          <leafValues>
            -2.1026282012462616e-01 1.6647261381149292e-01</leafValues></_>
        <_>
          <internalNodes>
            0 -1 34 -1847352634 716158157 -2048907681 -1153614730
            -1688628262 -286904196 -755362668 1380677050</internalNodes>
          <leafValues>
            -2.1683341264724731e-01 1.6017483174800873e-01</leafValues></_></weakClassifiers></_>
    <!-- stage 4 -->
    <_>
      <maxWeakCount>31</maxWeakCount>
      <stageThreshold>-1.3449118137359619e+00</stageThreshold>
      <weakClassifiers>
        <_>
          <internalNodes>
            0 -1 211 650062631 -1427989565 746550739 -497254740
            201283699 -1882724220 -43287436 -46073132</internalNodes>
          <leafValues>
            -6.4822620153427124e-01 -3.7382853031158447e-01</leafValues></_>
        <_>
          <internalNodes>
            0 -1 144 1206855599 250050559 -1812070670 -218441894
            2147441991 125663583 -151394076 -185075722</internalNodes>
          <leafValues>
            -2.9831928014755249e-01 7.5782902538776398e-02</leafValues></_>
        <_>
          <internalNodes>
            0 -1 233 -636543488 -1088706757 989295891 424770590
            -118552012 -1713492304 -1461772866 3338551</internalNodes>
          <leafValues>
            -2.5475555658340454e-01 1.2230096012353897e-01</leafValues></_>
        <_>
          <internalNodes>
            0 -1 139 681576453 -1092365955 1011756511 -539263049
            1558700031 -3224869 1748867065 -1130060464</internalNodes>
          <leafValues>
            -1.3886170089244843e-01 2.2385253012180328e-01</leafValues></_>
        <_>
          <internalNodes>
            0 -1 216 1878353698 582253047 -1439274462 -999366842
            122251079 1453699919 1476240596 1693842167</internalNodes>
          <leafValues>
            -3.9155930280685425e-01 9.8370127379894257e-02</leafValues></_>
        <_>
          <internalNodes>
            0 -1 96 1368749332 1602060671 -1515646703 -1183250454
            1991560905 1725077822 -1851512964 230156907</internalNodes>
          <leafValues>
            -2.2894750535488129e-01 1.4168415963649750e-01</leafValues></_>
        <_>
          <internalNodes>
            0 -1 90 -817894097 1862161866 -69206396 -800269594
            1744665428 1052245879 -1512186460 -466095513</internalNodes>
          <leafValues>
            -2.5178250670433044e-01 1.2978693842887878e-01</leafValues></_>
        <_>
          <internalNodes>
            0 -1 196 674503217 -543974433 -1352278056 -15222146
            -1866176513 -1123257155 -391368981 1511582258</internalNodes>
          <leafValues>
            -1.6915105283260345e-01 1.9252474606037140e-01</leafValues></_>
        <_>
          <internalNodes>
            0 -1 51 1797097466 347405182 1069235584 1239166668
            2024224951 1358695048 -52880228 1961883462</internalNodes>
          <leafValues>
            -2.2974008321762085e-01 1.4328920841217041e-01</leafValues></_>
        <_>
          <internalNodes>
            0 -1 4 -1970616158 -2079705536 -252412652 -2091809152
            -637115761 -779612334 1163646085 1349600257</internalNodes>
          <leafValues>
            -2.9553523659706116e-01 1.1252772063016891e-01</leafValues></_>
        <_>
          <internalNodes>
            0 -1 169 672074675 719207336 -23532868 1951170108 510631205
            -1392552427 -50455552 -327377504</internalNodes>
          <leafValues>
            -2.2406446933746338e-01 1.4516456425189972e-01</leafValues></_>
        <_>
          <internalNodes>
            0 -1 28 -220860450 313407914 -1177517040 -585059194
            1744246221 698096177 -202806020 745894867</internalNodes>
          <leafValues>
            -2.0053508877754211e-01 1.5913295745849609e-01</leafValues></_>
        <_>
          <internalNodes>
            0 -1 159 794377043 1072994190 -1107989578 -1098239576
            499521265 1236426741 1022888060 -1095492711</internalNodes>
          <leafValues>
            -1.8859493732452393e-01 1.7038515210151672e-01</leafValues></_>
        <_>
          <internalNodes>
            0 -1 226 1260373643 1778880307 1783820580 -1167402514
            1189665603 380108791 -18957424 -722143755</internalNodes>
          <leafValues>
            -2.1837225556373596e-01 1.4422130584716797e-01</leafValues></_>
        <_>
          <internalNodes>
            0 -1 103 444750080 -703748995 -1913319719 625761056
            -386705698 803159910 2017409212 1077952512</internalNodes>
          <leafValues>
            -3.0018356442451477e-01 1.0448373109102249e-01</leafValues></_>
        <_>
          <internalNodes>
            0 -1 215 -1783951868 -2107235650 150900324 -931348592
            1600068161 -1176522758 -507292272 -262081036</internalNodes>
          <leafValues>
            -2.6564112305641174e-01 1.2187219411134720e-01</leafValues></_>
        <_>
          <internalNodes>
            0 -1 107 -1342886098 572963626 -1629571106 -1096101422
            1676897797 242564926 -171329468 -252190858</internalNodes>
          <leafValues>
            -3.0276691913604736e-01 1.0576486587524414e-01</leafValues></_>
        <_>
          <internalNodes>
            0 -1 253 432149819 -745320719 355276639 -1655044787
            -1913125416 -23511572 -3169864 -1619371178</internalNodes>
          <leafValues>
            -1.3129018247127533e-01 2.4815587699413300e-01</leafValues></_>
        <_>
          <internalNodes>
            0 -1 222 -560475056 986771051 -1211405536 -1340713128
            2063583264 784797362 -673720120 1615964159</internalNodes>
          <leafValues>
            -2.2865657508373260e-01 1.4363507926464081e-01</leafValues></_>
        <_>
          <internalNodes>
            0 -1 9 -1024790868 -1562198889 1685736621 -1889438715
            940251807 -353473640 -1200550792 1414784818</internalNodes>
          <leafValues>
            -2.4342596530914307e-01 1.3137105107307434e-01</leafValues></_>
        <_>
          <internalNodes>
            0 -1 204 945640784 136344669 -423465966 1357495526
            -1576192576 808931710 1045846074 1277587298</internalNodes>
          <leafValues>
            -2.8134763240814209e-01 1.1672871559858322e-01</leafValues></_>
        <_>
          <internalNodes>
            0 -1 75 1993838496 674147743 -2099811744 -857450226
            836583942 1195277847 2006323732 1424019399</internalNodes>
          <leafValues>
            -4.3405470252037048e-01 7.3757380247116089e-02</leafValues></_>
        <_>
          <internalNodes>
            0 -1 123 403190270 477239960 -1346093579 -1121157572
            222237885 -90395122 367215512 1539205561</internalNodes>
          <leafValues>
            -1.8404105305671692e-01 1.8279626965522766e-01</leafValues></_>
        <_>
          <internalNodes>
            0 -1 132 1894851228 330104974 90384431 430502817 1397643579
            -1947177733 -1941357828 659731586</internalNodes>
          <leafValues>
            -2.2658202052116394e-01 1.4474606513977051e-01</leafValues></_>
        <_>
          <internalNodes>
            0 -1 194 -1408356741 -300507260 -1126711568 786322620
            -958707864 -60595393 -325913936 -1134516192</internalNodes>
          <leafValues>
            -2.2737672924995422e-01 1.4827710390090942e-01</leafValues></_>
        <_>
          <internalNodes>
            0 -1 110 1086368624 278136444 80128346 636389160 1977115170
            609244008 1345739244 1909829623</internalNodes>
          <leafValues>
            -3.0482080578804016e-01 1.1116424202919006e-01</leafValues></_>
        <_>
          <internalNodes>
            0 -1 231 -847802800 2104050551 -1650496577 494623936
            -1117976366 -69902346 -23725182 1075957315</internalNodes>
          <leafValues>
            -1.9092948734760284e-01 1.7916339635848999e-01</leafValues></_>
        <_>
          <internalNodes>
            0 -1 116 34874741 1532750834 -1151535131 -570708125
            398178271 -587693252 247264941 -1180109387</internalNodes>
          <leafValues>
            -1.7298647761344910e-01 2.0375341176986694e-01</leafValues></_>
        <_>
          <internalNodes>
            0 -1 184 -2089957888 512808033 -1899179483 827247647
            1128899741 718188841 1954027894 731184775</internalNodes>
          <leafValues>
            -2.4668951332569122e-01 1.4009548723697662e-01</leafValues></_>
        <_>
          <internalNodes>
            0 -1 92 -937188717 -1904309510 635138835 -118743056
            -270075915 -1111644802 -1213343792 -567480093</internalNodes>
          <leafValues>
            -1.6058781743049622e-01 2.1335174143314362e-01</leafValues></_>
        <_>
          <internalNodes>
            0 -1 65 -1526747378 39919214 -1363935448 1184265000
            1965186630 221078423 1942528518 -462233519</internalNodes>
          <leafValues>
            -3.2465201616287231e-01 1.0395449399948120e-01</leafValues></_></weakClassifiers></_>
    <!-- stage 5 -->
    <_>
      <maxWeakCount>35</maxWeakCount>
      <stageThreshold>-1.2910997867584229e+00</stageThreshold>
      <weakClassifiers>
        <_>
          <internalNodes>
            0 -1 165 570694713 2101200882 2071459199 -572667301
            -1225785857 -1074976595 -136921153 -1430241582</internalNodes>
          <leafValues>
            -5.8784532546997070e-01 -3.1439688801765442e-01</leafValues></_>
        <_>
          <internalNodes>
            0 -1 11 164286158 990809673 209487036 -504152171 1240272319
            1606813270 -1058024212 1869838300</internalNodes>
          <leafValues>
            -2.6232564449310303e-01 7.5636796653270721e-02</leafValues></_>
        <_>
          <internalNodes>
            0 -1 22 1745550894 516856374 -458969740 550403566 8348852
            -1258347700 -728802071 2096069216</internalNodes>
          <leafValues>
            -2.2263789176940918e-01 1.1975960433483124e-01</leafValues></_>
        <_>
          <internalNodes>
            0 -1 134 1156473606 644794151 -1301794078 14075918
            1614420068 137808 1928541440 8507222</internalNodes>
          <leafValues>
            -6.1386221647262573e-01 8.8137380778789520e-02</leafValues></_>
        <_>
          <internalNodes>
            0 -1 250 -872952058 307887447 -1968095628 585574006
            -86033148 1574644116 -91101322 -151525513</internalNodes>
          <leafValues>
            -2.0204591751098633e-01 1.2433905899524689e-01</leafValues></_>
        <_>
          <internalNodes>
            0 -1 70 -183189584 622186195 1009331839 1032665284 -54061550
            -1391870298 -90883878 518856830</internalNodes>
          <leafValues>
            -1.8802227079868317e-01 1.5611883997917175e-01</leafValues></_>
        <_>
          <internalNodes>
            0 -1 209 671220759 -135192743 1522022879 2132016991
            -1212723304 -67842919 -1612727570 -636434474</internalNodes>
          <leafValues>
            -1.1976633965969086e-01 2.3700720071792603e-01</leafValues></_>
        <_>
          <internalNodes>
            0 -1 2 -1937051998 -703976806 -933546757 1328848964
            1840773099 -69296206 1081242689 1617265927</internalNodes>
          <leafValues>
            -2.0790384709835052e-01 1.3729542493820190e-01</leafValues></_>
        <_>
          <internalNodes>
            0 -1 121 -292740601 581681024 -563348014 -231024024
            1971217744 240471165 -67177212 -252514569</internalNodes>
          <leafValues>
            -2.4278213083744049e-01 1.1605729162693024e-01</leafValues></_>
        <_>
          <internalNodes>
            0 -1 254 -2094001447 299138518 654320765 961712619
            -1224328455 -1175709859 414219144 -1386983428</internalNodes>
          <leafValues>
            -1.5162962675094604e-01 1.9435256719589233e-01</leafValues></_>
        <_>
          <internalNodes>
            0 -1 5 -1429280256 254149058 804271867 -1394360830 83876790
            -1921271560 -5684538 -1810892490</internalNodes>
          <leafValues>
            -2.2400911152362823e-01 1.2966437637805939e-01</leafValues></_>
        <_>
          <internalNodes>
            0 -1 101 -1010440834 1536294118 -1919538404 -1142898772
            358039544 1510275612 367794140 486010614</internalNodes>
          <leafValues>
            -1.8960091471672058e-01 1.5082256495952606e-01</leafValues></_>
        <_>
          <internalNodes>
            0 -1 174 1439653888 2064035584 1319964013 -2145344784
            1962411544 -1183958051 1752201450 1073869146</internalNodes>
          <leafValues>
            -2.6740053296089172e-01 1.0975880920886993e-01</leafValues></_>
        <_>
          <internalNodes>
            0 -1 146 1270434567 -288949396 -159621118 -1604785428
            1111324421 1861548884 -1027741632 -995858912</internalNodes>
          <leafValues>
            -2.9019740223884583e-01 9.6983969211578369e-02</leafValues></_>
        <_>
          <internalNodes>
            0 -1 94 738200120 -552747856 -479105890 -1074190988
            1287490746 -1082336408 -1938346325 13113492</internalNodes>
          <leafValues>
            -3.1021529436111450e-01 8.8546931743621826e-02</leafValues></_>
        <_>
          <internalNodes>
            0 -1 217 234225415 708819967 -345000844 1892768134
            -1729272569 1833167658 -1477609706 -198705802</internalNodes>
          <leafValues>
            -2.2163623571395874e-01 1.2873145937919617e-01</leafValues></_>
        <_>
          <internalNodes>
            0 -1 230 -1037401596 1710882283 -939602286 1045231182
            -388024320 -1384180490 -823791786 270648649</internalNodes>
          <leafValues>
            -2.6469269394874573e-01 1.0908418148756027e-01</leafValues></_>
        <_>
          <internalNodes>
            0 -1 149 1477301136 937771234 694494726 -1590944520
            -1578431762 1684681771 209014510 947232466</internalNodes>
          <leafValues>
            -2.2502666711807251e-01 1.3231709599494934e-01</leafValues></_>
        <_>
          <internalNodes>
            0 -1 21 -286358514 371308542 -423612460 -1444102582
            1282044379 -665650697 -993173048 1721192994</internalNodes>
          <leafValues>
            -2.0859067142009735e-01 1.4067493379116058e-01</leafValues></_>
        <_>
          <internalNodes>
            0 -1 91 -984365658 958737746 972897376 494394384 536049623
            428093765 -580427923 2037736039</internalNodes>
          <leafValues>
            -1.9111187756061554e-01 1.5117760002613068e-01</leafValues></_>
        <_>
          <internalNodes>
            0 -1 138 944091306 290302441 1240846099 534376262 170251388
            -1124521295 -285929510 1755797143</internalNodes>
          <leafValues>
            -1.9348259270191193e-01 1.4987397193908691e-01</leafValues></_>
        <_>
          <internalNodes>
            0 -1 88 1115902464 918708609 1750290326 -1310387218
            -1193582446 -1968436429 -235330043 611566850</internalNodes>
          <leafValues>
            -2.5882697105407715e-01 1.0965899378061295e-01</leafValues></_>
        <_>
          <internalNodes>
            0 -1 252 1979185149 326614907 -1325416898 923139825
            -816339768 -1344591122 -421568776 -2752521</internalNodes>
          <leafValues>
            -1.0922069847583771e-01 2.6814714074134827e-01</leafValues></_>
        <_>
          <internalNodes>
            0 -1 44 371224792 -982775672 493969400 -189955192
            -1286432550 -252304702 -1217332518 458043530</internalNodes>
          <leafValues>
            -1.8646821379661560e-01 1.5584282577037811e-01</leafValues></_>
        <_>
          <internalNodes>
            0 -1 205 -991564453 1432378 -1460606690 671022064
            -1253601908 532119500 -697142104 -121161003</internalNodes>
          <leafValues>
            -1.5991051495075226e-01 1.8306080996990204e-01</leafValues></_>
        <_>
          <internalNodes>
            0 -1 198 848767490 2203462 1237831346 -2107531558 -44073862
            419393353 -1310871280 -1861895082</internalNodes>
          <leafValues>
            -2.7822333574295044e-01 1.0303484648466110e-01</leafValues></_>
        <_>
          <internalNodes>
            0 -1 257 402718720 394151315 1333407524 -2006761603
            1602618388 511547488 -386268052 42602052</internalNodes>
          <leafValues>
            -3.3546531200408936e-01 8.9308835566043854e-02</leafValues></_>
        <_>
          <internalNodes>
            0 -1 189 -1660032506 248079702 -1887003304 752987878
            162613584 72894320 -2032112412 712959991</internalNodes>
          <leafValues>
            -2.7622303366661072e-01 1.0450295358896255e-01</leafValues></_>
        <_>
          <internalNodes>
            0 -1 242 1322560 1114380868 -1087810217 558371859 2043164840
            2113022252 -903602880 146035280</internalNodes>
          <leafValues>
            -4.5785275101661682e-01 6.1660423874855042e-02</leafValues></_>
        <_>
          <internalNodes>
            0 -1 83 -1433435629 -1471263107 -926681410 1879376084
            -57679274 -2050340768 -40557104 -129567036</internalNodes>
          <leafValues>
            -1.9323888421058655e-01 1.5295514464378357e-01</leafValues></_>
        <_>
          <internalNodes>
            0 -1 269 -251459920 -1818689035 1074584885 -793115157
            -1267026876 -1832941504 575922172 -1694229109</internalNodes>
          <leafValues>
            -1.6965341567993164e-01 1.7619571089744568e-01</leafValues></_>
        <_>
          <internalNodes>
            0 -1 223 -622151936 268513243 -471552231 770091463
            -1010880382 223557507 1236086814 675533183</internalNodes>
          <leafValues>
            -2.2820374369621277e-01 1.3506257534027100e-01</leafValues></_>
        <_>
          <internalNodes>
            0 -1 176 1669184000 669040187 797718008 1716006412
            1835427584 -1879190594 -240561728 1348843567</internalNodes>
          <leafValues>
            -2.9376786947250366e-01 9.9514275789260864e-02</leafValues></_>
        <_>
          <internalNodes>
            0 -1 106 1663350150 1349452438 -2068300767 -1655414532
            1744586200 -1536304808 694356317 468395560</internalNodes>
          <leafValues>
            -2.2533541917800903e-01 1.3526675105094910e-01</leafValues></_>
        <_>
          <internalNodes>
            0 -1 143 -2031115642 34526644 612101856 -99947182 1580629809
            181761963 -240289472 -164498331</internalNodes>
          <leafValues>
            -3.0833539366722107e-01 9.9063590168952942e-02</leafValues></_></weakClassifiers></_>
    <!-- stage 6 -->
    <_>
      <maxWeakCount>35</maxWeakCount>
      <stageThreshold>-1.3410025835037231e+00</stageThreshold>
      <weakClassifiers>
        <_>
          <internalNodes>
            0 -1 137 -1678102051 -1720577078 856132127 -1079763202
            -1183174468 -38238756 1875249656 -5567522</internalNodes>
          <leafValues>
            -5.7064074277877808e-01 -2.6267030835151672e-01</leafValues></_>
        <_>
          <internalNodes>
            0 -1 270 -786132840 -69727614 253375384 1360333021
            1980533416 140534316 1242605724 454694796</internalNodes>
          <leafValues>
            -2.3828551173210144e-01 8.9290805160999298e-02</leafValues></_>
        <_>
          <internalNodes>
            0 -1 1 178843650 1849593298 2134012109 1873165540 -421001795
            -653538348 770143485 1143149873</internalNodes>
          <leafValues>
            -2.4383205175399780e-01 1.0362546890974045e-01</leafValues></_>
        <_>
          <internalNodes>
            0 -1 235 2011678211 458942774 -146936526 685244415
            -119580160 976090770 -571347446 -251666573</internalNodes>
          <leafValues>
            -1.1775510013103485e-01 2.0828180015087128e-01</leafValues></_>
        <_>
          <internalNodes>
            0 -1 45 -1726209537 -1152112398 2050717181 530453480
            -164492115 -1733607975 -1442141697 -1881262664</internalNodes>
          <leafValues>
            -1.3333673775196075e-01 2.1333694458007812e-01</leafValues></_>
        <_>
          <internalNodes>
            0 -1 129 -538252433 -1467598997 -1364410686 1691015850
            -545967030 804212727 -471599662 -194544014</internalNodes>
          <leafValues>
            -2.0012047886848450e-01 1.3201719522476196e-01</leafValues></_>
        <_>
          <internalNodes>
            0 -1 72 -2028085984 -1849237961 -788624714 -449912780
            1481918711 -1281712454 -6348323 1147650114</internalNodes>
          <leafValues>
            -2.1186809241771698e-01 1.2816925346851349e-01</leafValues></_>
        <_>
          <internalNodes>
            0 -1 264 -82585446 -707188516 732252761 1565342888
            -1216427063 -551992674 -417008918 -620000118</internalNodes>
          <leafValues>
            -1.0152392089366913e-01 2.6811817288398743e-01</leafValues></_>
        <_>
          <internalNodes>
            0 -1 170 1180933954 575666183 1622720548 549743087 753867088
            91727897 1138954756 1678107239</internalNodes>
          <leafValues>
            -3.6914986371994019e-01 7.5093120336532593e-02</leafValues></_>
        <_>
          <internalNodes>
            0 -1 213 459747034 -208863035 546852351 527906421
            -1868777334 -1348204870 -1761037638 -1691640582</internalNodes>
          <leafValues>
            -1.3207434117794037e-01 2.1807996928691864e-01</leafValues></_>
        <_>
          <internalNodes>
            0 -1 82 -486694225 -1429746737 -81318984 -186084186
            401308731 1627154551 -1375279854 -789256270</internalNodes>
          <leafValues>
            -2.0615662634372711e-01 1.3299551606178284e-01</leafValues></_>
        <_>
          <internalNodes>
            0 -1 135 304223454 909561332 466729180 -581030188 1052402361
            1034202022 -1986547524 -540246448</internalNodes>
          <leafValues>
            -2.0933549106121063e-01 1.3045632839202881e-01</leafValues></_>
        <_>
          <internalNodes>
            0 -1 177 -1338768748 450710848 997374512 -1850711257
            1277053524 239483287 -1913349396 157444614</internalNodes>
          <leafValues>
            -2.8191947937011719e-01 9.6772283315658569e-02</leafValues></_>
        <_>
          <internalNodes>
            0 -1 79 -1674928000 -229100534 -1693328523 1023463255
            138264829 -305196955 738154266 100352</internalNodes>
          <leafValues>
            -2.5307992100715637e-01 1.0831999033689499e-01</leafValues></_>
        <_>
          <internalNodes>
            0 -1 26 103700582 984394814 1438391576 -1096144152
            1111495288 467250474 1055326068 206560432</internalNodes>
          <leafValues>
            -2.7071917057037354e-01 1.0032244026660919e-01</leafValues></_>
        <_>
          <internalNodes>
            0 -1 192 147498758 -12962665 1811267551 1002421951
            -403996947 -1648918875 -361247335 -2013135561</internalNodes>
          <leafValues>
            -1.3585564494132996e-01 2.0049895346164703e-01</leafValues></_>
        <_>
          <internalNodes>
            0 -1 50 -2122898292 905949608 -401504236 837742802 404512173
            949152360 1508145631 1533514592</internalNodes>
          <leafValues>
            -2.3524400591850281e-01 1.1747696995735168e-01</leafValues></_>
        <_>
          <internalNodes>
            0 -1 108 1835460032 369473908 -1385944776 1205030890
            -2125193884 107388892 776815252 1750433382</internalNodes>
          <leafValues>
            -2.5641375780105591e-01 1.1315884441137314e-01</leafValues></_>
        <_>
          <internalNodes>
            0 -1 201 -854450176 935273790 1433602960 555656917
            -369800064 686414133 -258151990 10679039</internalNodes>
          <leafValues>
            -2.5431722402572632e-01 1.0576723515987396e-01</leafValues></_>
        <_>
          <internalNodes>
            0 -1 98 2062547255 1954903614 -1111677510 -1645363521
            2096542379 -1378170943 -371327221 -33816634</internalNodes>
          <leafValues>
            -1.0219870507717133e-01 2.7702254056930542e-01</leafValues></_>
        <_>
          <internalNodes>
            0 -1 12 1078650440 171880358 641861668 717684498 477042735
            559185741 -506187164 273984256</internalNodes>
          <leafValues>
            -3.9232346415519714e-01 6.9548875093460083e-02</leafValues></_>
        <_>
          <internalNodes>
            0 -1 80 -229572016 -1323946642 994946551 58725610 853739472
            -308314961 1418901598 1766313468</internalNodes>
          <leafValues>
            -2.0365999639034271e-01 1.3791503012180328e-01</leafValues></_>
        <_>
          <internalNodes>
            0 -1 131 1089414675 -671252503 -1074004609 -1644282497
            -589746278 -1644560750 2109586683 -1741990153</internalNodes>
          <leafValues>
            -1.0706187784671783e-01 2.5943142175674438e-01</leafValues></_>
        <_>
          <internalNodes>
            0 -1 151 1649222914 16462797 -257168288 1655634016
            1877440534 1164275258 -331009680 1074978022</internalNodes>
          <leafValues>
            -4.2799189686775208e-01 6.5411120653152466e-02</leafValues></_>
        <_>
          <internalNodes>
            0 -1 19 -118566218 1561443021 617628690 -1397754844
            1233011773 -1194584105 776437724 2108503378</internalNodes>
          <leafValues>
            -2.0269551873207092e-01 1.4291536808013916e-01</leafValues></_>
        <_>
          <internalNodes>
            0 -1 81 1319505686 416324634 176379760 -896432588 777000701
            1012813114 1750149784 46419350</internalNodes>
          <leafValues>
            -2.6911213994026184e-01 1.0363060235977173e-01</leafValues></_>
        <_>
          <internalNodes>
            0 -1 182 -371868338 317722306 763775788 1910894468 462163671
            902352313 1165324974 754301974</internalNodes>
          <leafValues>
            -2.1044334769248962e-01 1.4210154116153717e-01</leafValues></_>
        <_>
          <internalNodes>
            0 -1 256 1275592704 812368636 -1235398274 -727341582
            2119632960 -79094920 1265007668 5254168</internalNodes>
          <leafValues>
            -3.4331959486007690e-01 8.0613799393177032e-02</leafValues></_>
        <_>
          <internalNodes>
            0 -1 224 1102045982 512031060 1553079912 836757568 493303316
            151894877 871396486 753437499</internalNodes>
          <leafValues>
            -2.2706235945224762e-01 1.2653018534183502e-01</leafValues></_>
        <_>
          <internalNodes>
            0 -1 240 457548272 -654165389 27128785 2106077898 241037992
            -1683201677 -309212456 868790990</internalNodes>
          <leafValues>
            -1.7434027791023254e-01 1.6390259563922882e-01</leafValues></_>
        <_>
          <internalNodes>
            0 -1 64 1714138980 585354241 -1407729152 49998284 905672453
            611562842 1195614273 7694066</internalNodes>
          <leafValues>
            -5.2654093503952026e-01 5.3538188338279724e-02</leafValues></_>
        <_>
          <internalNodes>
            0 -1 43 84512986 1220538444 453776753 -796552748 -1386104223
            -1154419748 499820241 -613699424</internalNodes>
          <leafValues>
            -1.7148175835609436e-01 1.6928352415561676e-01</leafValues></_>
        <_>
          <internalNodes>
            0 -1 3 -2003958244 980289996 -1566667652 1048595556
            2088255280 1810988879 79955149 544957</internalNodes>
          <leafValues>
            -3.5405585169792175e-01 7.8352943062782288e-02</leafValues></_>
        <_>
          <internalNodes>
            0 -1 161 1115261955 -639959909 1182234815 1039731709
            -145916241 -550507044 -58984453 -2010652153</internalNodes>
          <leafValues>
            -1.2080437690019608e-01 2.3804569244384766e-01</leafValues></_>
        <_>
          <internalNodes>
            0 -1 241 -763161575 -706507656 407904168 -37544771 -2043756
            -428415692 -44695670 1541049240</internalNodes>
          <leafValues>
            -1.4509466290473938e-01 2.0288884639739990e-01</leafValues></_></weakClassifiers></_>
    <!-- stage 7 -->
    <_>
      <maxWeakCount>38</maxWeakCount>
      <stageThreshold>-1.2714245319366455e+00</stageThreshold>
      <weakClassifiers>
        <_>
          <internalNodes>
            0 -1 67 -1748323081 999700912 -1455513602 522227676
            993268952 -2009257843 1532573945 -821216690</internalNodes>
          <leafValues>
            -5.7409495115280151e-01 -3.0952912569046021e-01</leafValues></_>
        <_>
          <internalNodes>
            0 -1 259 -135037068 423033839 -506159492 994898737 956252312
            -1175201025 -288735272 -270009356</internalNodes>
          <leafValues>
            -1.9950704276561737e-01 1.0713457316160202e-01</leafValues></_>
        <_>
          <internalNodes>
            0 -1 102 178963985 -68349992 429797343 2111421437 -872429333
            -285525249 -1997668437 -1432370732</internalNodes>
          <leafValues>
            -1.0033500939607620e-01 2.3934060335159302e-01</leafValues></_>
        <_>
          <internalNodes>
            0 -1 60 279652608 993276346 265297957 1386650297 1125002027
            291778321 2022709737 2262021</internalNodes>
          <leafValues>
            -3.1242501735687256e-01 7.7337540686130524e-02</leafValues></_>
        <_>
          <internalNodes>
            0 -1 105 1670631933 -2056601648 290303806 -2127757938
            1453163701 -36706275 -1228936100 -536909154</internalNodes>
          <leafValues>
            -6.8439520895481110e-02 2.8203251957893372e-01</leafValues></_>
        <_>
          <internalNodes>
            0 -1 183 279316989 857157322 290465279 972069872 -1919725428
            528224240 1692670616 788877576</internalNodes>
          <leafValues>
            -1.4784011244773865e-01 1.6639339923858643e-01</leafValues></_>
        <_>
          <internalNodes>
            0 -1 258 -1449849086 1008848894 534608346 805993474
            1902019076 1022344665 -429818096 8717941</internalNodes>
          <leafValues>
            -2.8509718179702759e-01 8.0095000565052032e-02</leafValues></_>
        <_>
          <internalNodes>
            0 -1 157 1873102474 415673474 128789216 753986144
            -1136316952 1760693324 -1933730614 1691480573</internalNodes>
          <leafValues>
            -2.0495133101940155e-01 1.3118520379066467e-01</leafValues></_>
        <_>
          <internalNodes>
            0 -1 142 938537643 -582855258 -1125839186 -1788809383
            -277804409 1825830937 -416087265 320730690</internalNodes>
          <leafValues>
            -1.6250988841056824e-01 1.5044006705284119e-01</leafValues></_>
        <_>
          <internalNodes>
            0 -1 145 2099200 127679126 402340441 -2016242624 1524132536
            -1094739610 2136496793 3145824</internalNodes>
          <leafValues>
            -4.2284712195396423e-01 6.6399380564689636e-02</leafValues></_>
        <_>
          <internalNodes>
            0 -1 268 -649410352 1805305016 1577131226 1390251940
            -379809214 -510762346 -552927326 -768789622</internalNodes>
          <leafValues>
            -1.5530008077621460e-01 1.6729539632797241e-01</leafValues></_>
        <_>
          <internalNodes>
            0 -1 99 1118807040 1893864064 1446031040 936886792 963874821
            1397227484 1965418624 812070758</internalNodes>
          <leafValues>
            -2.7883923053741455e-01 8.9768081903457642e-02</leafValues></_>
        <_>
          <internalNodes>
            0 -1 77 -1861901640 -1756755328 1380013660 970793758
            959820419 -96138580 530711288 420157624</internalNodes>
          <leafValues>
            -1.8264028429985046e-01 1.4052778482437134e-01</leafValues></_>
        <_>
          <internalNodes>
            0 -1 187 -1455685948 208676143 -454285616 349305481
            790834904 -1441434427 653266934 1792369043</internalNodes>
          <leafValues>
            -2.0776942372322083e-01 1.2299165874719620e-01</leafValues></_>
        <_>
          <internalNodes>
            0 -1 0 204269418 -848795891 1195349997 -339828742 -201463105
            -140515092 -1610826307 -1074666221</internalNodes>
          <leafValues>
            -1.3851429522037506e-01 1.8321990966796875e-01</leafValues></_>
        <_>
          <internalNodes>
            0 -1 86 -838161316 295842659 -1786167463 -981886405
            2102741176 -1099110451 1638728493 1080524854</internalNodes>
          <leafValues>
            -1.9355174899101257e-01 1.3473951816558838e-01</leafValues></_>
        <_>
          <internalNodes>
            0 -1 84 -288748498 235363970 1451781636 -2000151570
            1933379392 1616984611 565401152 1348719509</internalNodes>
          <leafValues>
            -5.4398113489151001e-01 4.6915404498577118e-02</leafValues></_>
        <_>
          <internalNodes>
            0 -1 35 1356476082 599846170 68101978 -1784551452 1009935257
            -185586079 1612000676 817586971</internalNodes>
          <leafValues>
            -2.3387147486209869e-01 1.0873069614171982e-01</leafValues></_>
        <_>
          <internalNodes>
            0 -1 167 -898762956 386214630 48185184 -2006781983 562140244
            965357346 1249739752 285078231</internalNodes>
          <leafValues>
            -2.2666905820369720e-01 1.1236784607172012e-01</leafValues></_>
        <_>
          <internalNodes>
            0 -1 124 536888848 -1942908087 -1160009665 -707379628
            981863358 -479638861 717838226 5246144</internalNodes>
          <leafValues>
            -3.2710757851600647e-01 7.8261211514472961e-02</leafValues></_>
        <_>
          <internalNodes>
            0 -1 29 -676062438 1086121900 -1561360886 226013064
            1505439844 1425308646 1588672078 1950277024</internalNodes>
          <leafValues>
            -2.6668232679367065e-01 9.6879482269287109e-02</leafValues></_>
        <_>
          <internalNodes>
            0 -1 24 2130706357 -1946292582 935281343 260942504
            1473212301 -119725869 -548559305 -304621954</internalNodes>
          <leafValues>
            -1.1294439435005188e-01 2.4151751399040222e-01</leafValues></_>
        <_>
          <internalNodes>
            0 -1 203 2024207380 1003842601 1693773426 -1792351266
            1659503454 1746313013 -532597544 875331387</internalNodes>
          <leafValues>
            -2.0452624559402466e-01 1.2799790501594543e-01</leafValues></_>
        <_>
          <internalNodes>
            0 -1 218 -1049383130 11171694 -297636350 1921827756
            1811354912 1415569271 1727756228 -802168075</internalNodes>
          <leafValues>
            -2.6349663734436035e-01 9.9637590348720551e-02</leafValues></_>
        <_>
          <internalNodes>
            0 -1 20 -1903362434 -1482010674 -1123632489 650919628
            1871999689 -103819211 265897340 -1444000012</internalNodes>
          <leafValues>
            -2.1372732520103455e-01 1.2393552809953690e-01</leafValues></_>
        <_>
          <internalNodes>
            0 -1 162 -968300268 948039429 1458931404 1759227232
            -95519632 -1614590834 -1057727696 -1876433406</internalNodes>
          <leafValues>
            -2.1905820071697235e-01 1.1940777301788330e-01</leafValues></_>
        <_>
          <internalNodes>
            0 -1 104 1712432256 214926530 -435910522 70314610 137774641
            2112805397 1805370014 1104670762</internalNodes>
          <leafValues>
            -2.3515488207340240e-01 1.1408683657646179e-01</leafValues></_>
        <_>
          <internalNodes>
            0 -1 221 -2103457726 -1156481069 -403237449 536340859
            -6585650 -1225289754 -1376614513 -531460178</internalNodes>
          <leafValues>
            -1.4746810495853424e-01 1.8913286924362183e-01</leafValues></_>
        <_>
          <internalNodes>
            0 -1 247 476885656 -70644103 25706597 459262068 -567230076
            -1482783051 -1492781061 -1190347570</internalNodes>
          <leafValues>
            -1.4924937486648560e-01 1.8815329670906067e-01</leafValues></_>
        <_>
          <internalNodes>
            0 -1 63 89131688 1834785240 -1656608891 739188863 541355933
            245209682 -1870361806 39914117</internalNodes>
          <leafValues>
            -3.0103814601898193e-01 9.4185672700405121e-02</leafValues></_>
        <_>
          <internalNodes>
            0 -1 74 1555180714 293682878 1827951372 871168354 1619612644
            -592925572 -1635315830 1485908070</internalNodes>
          <leafValues>
            -2.3080573976039886e-01 1.2017425894737244e-01</leafValues></_>
        <_>
          <internalNodes>
            0 -1 16 586025626 -1541142994 423539452 -841582266
            -1286131745 488114663 623789779 657478754</internalNodes>
          <leafValues>
            -2.5120562314987183e-01 1.0754283517599106e-01</leafValues></_>
        <_>
          <internalNodes>
            0 -1 57 -1159151072 1117830902 948015101 1965711920
            1223624861 75183164 600271424 1076321723</internalNodes>
          <leafValues>
            -2.4303048849105835e-01 1.1565564572811127e-01</leafValues></_>
        <_>
          <internalNodes>
            0 -1 243 -1696148385 1026928511 -1959020712 1039279686
            1161507500 1551826943 -58880666 -1033306322</internalNodes>
          <leafValues>
            -1.4944560825824738e-01 1.8806943297386169e-01</leafValues></_>
        <_>
          <internalNodes>
            0 -1 238 805437466 902039198 354431050 369014724 631776700
            -2008001496 1006647374 424699338</internalNodes>
          <leafValues>
            -2.5354763865470886e-01 1.1170040816068649e-01</leafValues></_>
        <_>
          <internalNodes>
            0 -1 38 -421040954 42504063 -50700088 -2097668760 1711156517
            779399673 -1027771900 -261832731</internalNodes>
          <leafValues>
            -2.9996761679649353e-01 9.3903787434101105e-02</leafValues></_>
        <_>
          <internalNodes>
            0 -1 180 -1652101541 775820863 2147376756 -403330202
            1972225716 -1075953761 1878575598 -26878622</internalNodes>
          <leafValues>
            -1.4043465256690979e-01 2.0707471668720245e-01</leafValues></_>
        <_>
          <internalNodes>
            0 -1 114 -925569248 1419454563 -569303875 -1377975178
            1813339462 -332490060 -612136047 607972112</internalNodes>
          <leafValues>
            -2.2288905084133148e-01 1.2428026646375656e-01</leafValues></_></weakClassifiers></_>
    <!-- stage 8 -->
    <_>
      <maxWeakCount>39</maxWeakCount>
      <stageThreshold>-1.2918660640716553e+00</stageThreshold>
      <weakClassifiers>
        <_>
          <internalNodes>
            0 -1 260 -754414854 -539091769 191897211 534215135
            -1655987780 -1153431496 1970057914 -14974054</internalNodes>
          <leafValues>
            -5.6701904535293579e-01 -3.1017965078353882e-01</leafValues></_>
        <_>
          <internalNodes>
            0 -1 33 1353369218 -2009832378 1826766175 83991873
            -645184003 -107021969 -1493881603 91272017</internalNodes>
          <leafValues>
            -2.7056390047073364e-01 5.1774431020021439e-02</leafValues></_>
        <_>
          <internalNodes>
            0 -1 191 544735506 -560595873 -2052333834 -8692065
            -1160464198 -874669734 -1476876310 5524944</internalNodes>
          <leafValues>
            -2.1842856705188751e-01 1.0578379034996033e-01</leafValues></_>
        <_>
          <internalNodes>
            0 -1 262 2111247104 751728498 -69612843 764800276 2124029848
            -644159125 708719190 -1432716482</internalNodes>
          <leafValues>
            -1.6051243245601654e-01 1.5867570042610168e-01</leafValues></_>
        <_>
          <internalNodes>
            0 -1 100 593192482 807466702 113639424 490121924 1544660960
            2108906300 1949394624 1951753701</internalNodes>
          <leafValues>
            -2.6002809405326843e-01 9.2142514884471893e-02</leafValues></_>
        <_>
          <internalNodes>
            0 -1 52 1835982646 1046784810 984517696 -1347227596
            1230054463 901066617 125578576 880553556</internalNodes>
          <leafValues>
            -2.3788462579250336e-01 9.5911182463169098e-02</leafValues></_>
        <_>
          <internalNodes>
            0 -1 158 744861186 3939426 1740213616 -1528119853 1925005480
            190173128 312508024 1019273958</internalNodes>
          <leafValues>
            -2.5836491584777832e-01 8.9018069207668304e-02</leafValues></_>
        <_>
          <internalNodes>
            0 -1 186 980409872 973862796 -616780600 280856712 1749779524
            265587863 647385204 1757511239</internalNodes>
          <leafValues>
            -2.5505739450454712e-01 9.0712934732437134e-02</leafValues></_>
        <_>
          <internalNodes>
            0 -1 136 1740468856 750948228 724507920 712663039 1499137876
            1617447670 804784132 834152226</internalNodes>
          <leafValues>
            -3.0061733722686768e-01 7.7511124312877655e-02</leafValues></_>
        <_>
          <internalNodes>
            0 -1 47 1316659970 280914262 1421372754 552501578 1650822245
            1251182179 -1315018636 6635842</internalNodes>
          <leafValues>
            -3.7329962849617004e-01 6.2762834131717682e-02</leafValues></_>
        <_>
          <internalNodes>
            0 -1 266 -1826717496 1903120464 1798296281 1472577534
            -1156284248 1070633056 -855262262 256070346</internalNodes>
          <leafValues>
            -1.5678632259368896e-01 1.5401026606559753e-01</leafValues></_>
        <_>
          <internalNodes>
            0 -1 117 -2135951349 -357577878 -2017940974 1123988148
            388984838 1408204253 -172092860 -995773147</internalNodes>
          <leafValues>
            -2.3568131029605865e-01 1.0393971949815750e-01</leafValues></_>
        <_>
          <internalNodes>
            0 -1 126 1752546184 1931743148 -1510603791 535901890
            781462122 1337251764 320813550 1302361927</internalNodes>
          <leafValues>
            -2.1318030357360840e-01 1.1377725005149841e-01</leafValues></_>
        <_>
          <internalNodes>
            0 -1 212 -153104509 67909973 -1396131744 -2105094814
            92162053 1696637210 -403558092 1557429938</internalNodes>
          <leafValues>
            -2.4013952910900116e-01 1.0031367093324661e-01</leafValues></_>
        <_>
          <internalNodes>
            0 -1 95 553879665 -206842113 -1119886537 -1479992451
            1538062747 -1646551364 -658786561 -1576216368</internalNodes>
          <leafValues>
            -1.2947325408458710e-01 1.9139668345451355e-01</leafValues></_>
        <_>
          <internalNodes>
            0 -1 197 -174356720 427831245 1693921745 521667576
            -2132928613 -2103557025 1279276542 139556726</internalNodes>
          <leafValues>
            -2.1643528342247009e-01 1.1584552377462387e-01</leafValues></_>
        <_>
          <internalNodes>
            0 -1 93 1069945562 -2109861838 764764052 323533760
            1730414307 738354412 509757500 1275604682</internalNodes>
          <leafValues>
            -2.0606449246406555e-01 1.2075517326593399e-01</leafValues></_>
        <_>
          <internalNodes>
            0 -1 234 503757834 382344988 801459044 598675766 616370838
            1274969559 2051301544 2060957264</internalNodes>
          <leafValues>
            -2.0368979871273041e-01 1.2440717220306396e-01</leafValues></_>
        <_>
          <internalNodes>
            0 -1 263 991895312 -1282216157 -676464654 -1510558337
            -1116045328 -33932388 2069596260 -1952272508</internalNodes>
          <leafValues>
            -1.9224235415458679e-01 1.3115115463733673e-01</leafValues></_>
        <_>
          <internalNodes>
            0 -1 173 1645160202 33749559 6274658 1079761162 1834422368
            78703734 885143328 1147260198</internalNodes>
          <leafValues>
            -4.5667642354965210e-01 5.5231921374797821e-02</leafValues></_>
        <_>
          <internalNodes>
            0 -1 73 -81415628 893922998 -1188648917 1496610608 399774104
            -1882886777 1760565501 139357567</internalNodes>
          <leafValues>
            -1.9299726188182831e-01 1.3473142683506012e-01</leafValues></_>
        <_>
          <internalNodes>
            0 -1 227 827957467 1464207834 200075105 -678845876
            -1084484714 985007248 -1554759698 -1610992738</internalNodes>
          <leafValues>
            -1.3089886307716370e-01 1.9823901355266571e-01</leafValues></_>
        <_>
          <internalNodes>
            0 -1 59 -115133734 -1120517494 1804681683 1568423764
            -1815487525 -1943511745 175125995 -1680199528</internalNodes>
          <leafValues>
            -1.3630956411361694e-01 1.9138081371784210e-01</leafValues></_>
        <_>
          <internalNodes>
            0 -1 14 -1675450142 176580518 -186905412 1131771904 72814784
            1310081311 -1650801899 1365433702</internalNodes>
          <leafValues>
            -2.6761135458946228e-01 9.7272753715515137e-02</leafValues></_>
        <_>
          <internalNodes>
            0 -1 112 27583362 14555036 92473476 145280430 -431929497
            1173691093 -40652736 1291148021</internalNodes>
          <leafValues>
            -3.1137496232986450e-01 8.3197891712188721e-02</leafValues></_>
        <_>
          <internalNodes>
            0 -1 179 -50536531 450150199 1051482676 -1623146688
            762030813 -1125814412 -138178710 2026292447</internalNodes>
          <leafValues>
            -1.4097915589809418e-01 1.8476337194442749e-01</leafValues></_>
        <_>
          <internalNodes>
            0 -1 58 1098516198 822882632 655758530 913710763 560207912
            619193326 1213619852 343401524</internalNodes>
          <leafValues>
            -2.6169225573539734e-01 1.0051611065864563e-01</leafValues></_>
        <_>
          <internalNodes>
            0 -1 40 129637980 873479400 -1417612329 465835068 1644716013
            -11246596 2119704188 7611592</internalNodes>
          <leafValues>
            -4.3025466799736023e-01 5.9761796146631241e-02</leafValues></_>
        <_>
          <internalNodes>
            0 -1 239 -79843837 -336712629 -1528000664 414051820
            1933404548 -1573626110 -886818172 -286066742</internalNodes>
          <leafValues>
            -1.5856899321079254e-01 1.6983127593994141e-01</leafValues></_>
        <_>
          <internalNodes>
            0 -1 245 578816628 -1546628160 -2117375073 1037843024
            -1153159532 2012944793 512514557 711998988</internalNodes>
          <leafValues>
            -5.1467353105545044e-01 5.0573583692312241e-02</leafValues></_>
        <_>
          <internalNodes>
            0 -1 163 1084666900 1516956181 -1401981278 200641614
            151470265 -76223641 178323650 2024233639</internalNodes>
          <leafValues>
            -2.0450967550277710e-01 1.2614229321479797e-01</leafValues></_>
        <_>
          <internalNodes>
            0 -1 251 -235430321 946650988 1054335908 295324886
            -336049076 -1166599593 -908431252 2071310144</internalNodes>
          <leafValues>
            -1.6908912360668182e-01 1.5553788840770721e-01</leafValues></_>
        <_>
          <internalNodes>
            0 -1 255 -2099052370 43786756 558511847 139396027 1333237829
            1136309104 -383011612 -1027324724</internalNodes>
          <leafValues>
            -2.2573070228099823e-01 1.1623955518007278e-01</leafValues></_>
        <_>
          <internalNodes>
            0 -1 172 1268162736 1036919668 395092752 729944002
            -1931016806 531793911 1444271566 357033318</internalNodes>
          <leafValues>
            -2.0202024281024933e-01 1.3329127430915833e-01</leafValues></_>
        <_>
          <internalNodes>
            0 -1 153 -1736433295 -222328503 1763511406 1483589819
            -1128584005 -1167201029 1491922699 480014509</internalNodes>
          <leafValues>
            -1.9354152679443359e-01 1.4082349836826324e-01</leafValues></_>
        <_>
          <internalNodes>
            0 -1 56 1208662131 -1360334718 -1871610960 1414332785
            2135353662 -611678569 -706108494 3630802</internalNodes>
          <leafValues>
            -2.0365864038467407e-01 1.3256245851516724e-01</leafValues></_>
        <_>
          <internalNodes>
            0 -1 125 607191360 110139353 615329828 557660748 1689003118
            618801335 93090077 141577729</internalNodes>
          <leafValues>
            -3.5869437456130981e-01 7.6109960675239563e-02</leafValues></_>
        <_>
          <internalNodes>
            0 -1 261 -1614065143 -1207971493 2080210111 -12978417
            -134278950 514804889 1141676695 -1709036522</internalNodes>
          <leafValues>
            -1.6209341585636139e-01 1.7091602087020874e-01</leafValues></_>
        <_>
          <internalNodes>
            0 -1 166 -1195250878 46677742 -1996917562 1679321638
            652691204 1798752187 1963958624 25621332</internalNodes>
          <leafValues>
            -3.9158254861831665e-01 6.8574681878089905e-02</leafValues></_></weakClassifiers></_></stages>
  <features>
    <_>
      <rect>
        0 0 4 2</rect></_>
    <_>
      <rect>
        0 0 4 6</rect></_>
    <_>
      <rect>
        0 0 5 5</rect></_>
    <_>
      <rect>
        0 0 5 14</rect></_>
    <_>
      <rect>
        0 0 6 4</rect></_>
    <_>
      <rect>
        0 0 7 1</rect></_>
    <_>
      <rect>
        0 0 7 9</rect></_>
    <_>
      <rect>
        0 0 10 5</rect></_>
    <_>
      <rect>
        0 0 11 3</rect></_>
    <_>
      <rect>
        0 0 12 9</rect></_>
    <_>
      <rect>
        0 0 12 12</rect></_>
    <_>
      <rect>
        0 0 14 11</rect></_>
    <_>
      <rect>
        0 0 16 6</rect></_>
    <_>
      <rect>
        0 0 16 7</rect></_>
    <_>
      <rect>
        0 1 11 8</rect></_>
    <_>
      <rect>
        0 1 16 16</rect></_>
    <_>
      <rect>
        0 4 3 3</rect></_>
    <_>
      <rect>
        0 5 7 10</rect></_>
    <_>
      <rect>
        0 6 10 9</rect></_>
    <_>
      <rect>
        0 8 8 14</rect></_>
    <_>
      <rect>
        0 10 2 13</rect></_>
    <_>
      <rect>
        0 12 5 8</rect></_>
    <_>
      <rect>
        0 14 6 12</rect></_>
    <_>
      <rect>
        0 14 8 12</rect></_>
    <_>
      <rect>
        0 18 13 8</rect></_>
    <_>
      <rect>
        0 20 10 10</rect></_>
    <_>
      <rect>
        0 23 5 9</rect></_>
    <_>
      <rect>
        0 33 6 2</rect></_>
    <_>
      <rect>
        0 38 7 4</rect></_>
    <_>
      <rect>
        0 38 12 4</rect></_>
    <_>
      <rect>
        0 41 2 3</rect></_>
    <_>
      <rect>
        0 47 1 1</rect></_>
    <_>
      <rect>
        1 0 4 11</rect></_>
    <_>
      <rect>
        1 0 8 8</rect></_>
    <_>
      <rect>
        1 0 9 15</rect></_>
    <_>
      <rect>
        1 8 11 12</rect></_>
    <_>
      <rect>
        1 14 9 10</rect></_>
    <_>
      <rect>
        1 21 6 2</rect></_>
    <_>
      <rect>
        1 23 4 2</rect></_>
    <_>
      <rect>
        1 23 10 9</rect></_>
    <_>
      <rect>
        1 27 1 7</rect></_>
    <_>
      <rect>
        1 27 8 3</rect></_>
    <_>
      <rect>
        1 35 12 5</rect></_>
    <_>
      <rect>
        1 39 1 1</rect></_>
    <_>
      <rect>
        1 45 1 1</rect></_>
    <_>
      <rect>
        1 47 2 1</rect></_>
    <_>
      <rect>
        2 0 8 3</rect></_>
    <_>
      <rect>
        2 0 16 2</rect></_>
    <_>
      <rect>
        2 2 16 16</rect></_>
    <_>
      <rect>
        2 3 16 12</rect></_>
    <_>
      <rect>
        2 13 16 8</rect></_>
    <_>
      <rect>
        2 32 11 6</rect></_>
    <_>
      <rect>
        2 35 5 5</rect></_>
    <_>
      <rect>
        2 38 15 4</rect></_>
    <_>
      <rect>
        3 22 5 2</rect></_>
    <_>
      <rect>
        4 0 5 5</rect></_>
    <_>
      <rect>
        4 1 4 2</rect></_>
    <_>
      <rect>
        4 4 6 5</rect></_>
    <_>
      <rect>
        4 26 6 7</rect></_>
    <_>
      <rect>
        4 47 1 1</rect></_>
    <_>
      <rect>
        5 0 15 11</rect></_>
    <_>
      <rect>
        5 1 15 16</rect></_>
    <_>
      <rect>
        5 2 12 6</rect></_>
    <_>
      <rect>
        5 3 15 12</rect></_>
    <_>
      <rect>
        5 38 5 1</rect></_>
    <_>
      <rect>
        6 24 2 1</rect></_>
    <_>
      <rect>
        6 25 10 8</rect></_>
    <_>
      <rect>
        6 47 6 1</rect></_>
    <_>
      <rect>
        7 0 2 2</rect></_>
    <_>
      <rect>
        7 0 14 2</rect></_>
    <_>
      <rect>
        7 3 10 14</rect></_>
    <_>
      <rect>
        8 0 8 1</rect></_>
    <_>
      <rect>
        8 0 14 4</rect></_>
    <_>
      <rect>
        8 7 11 8</rect></_>
    <_>
      <rect>
        8 21 6 8</rect></_>
    <_>
      <rect>
        8 27 3 1</rect></_>
    <_>
      <rect>
        8 32 13 6</rect></_>
    <_>
      <rect>
        8 47 1 1</rect></_>
    <_>
      <rect>
        8 47 2 1</rect></_>
    <_>
      <rect>
        9 0 4 5</rect></_>
    <_>
      <rect>
        9 6 6 9</rect></_>
    <_>
      <rect>
        9 20 9 8</rect></_>
    <_>
      <rect>
        9 23 2 1</rect></_>
    <_>
      <rect>
        9 25 1 1</rect></_>
    <_>
      <rect>
        9 34 5 1</rect></_>
    <_>
      <rect>
        9 47 13 1</rect></_>
    <_>
      <rect>
        10 0 6 4</rect></_>
    <_>
      <rect>
        10 0 10 5</rect></_>
    <_>
      <rect>
        10 0 11 4</rect></_>
    <_>
      <rect>
        10 21 3 1</rect></_>
    <_>
      <rect>
        10 23 3 1</rect></_>
    <_>
      <rect>
        10 35 6 5</rect></_>
    <_>
      <rect>
        10 40 1 1</rect></_>
    <_>
      <rect>
        10 47 4 1</rect></_>
    <_>
      <rect>
        11 0 1 2</rect></_>
    <_>
      <rect>
        11 0 2 1</rect></_>
    <_>
      <rect>
        11 2 13 16</rect></_>
    <_>
      <rect>
        11 17 4 1</rect></_>
    <_>
      <rect>
        11 23 6 8</rect></_>
    <_>
      <rect>
        11 29 9 5</rect></_>
    <_>
      <rect>
        11 32 8 6</rect></_>
    <_>
      <rect>
        11 41 11 3</rect></_>
    <_>
      <rect>
        12 0 3 1</rect></_>
    <_>
      <rect>
        12 0 5 6</rect></_>
    <_>
      <rect>
        12 3 7 6</rect></_>
    <_>
      <rect>
        12 4 10 8</rect></_>
    <_>
      <rect>
        12 8 9 10</rect></_>
    <_>
      <rect>
        12 21 3 1</rect></_>
    <_>
      <rect>
        12 23 7 9</rect></_>
    <_>
      <rect>
        12 24 2 1</rect></_>
    <_>
      <rect>
        12 25 11 8</rect></_>
    <_>
      <rect>
        12 25 12 8</rect></_>
    <_>
      <rect>
        12 37 12 4</rect></_>
    <_>
      <rect>
        13 0 2 2</rect></_>
    <_>
      <rect>
        13 0 10 1</rect></_>
    <_>
      <rect>
        13 0 12 1</rect></_>
    <_>
      <rect>
        13 1 1 1</rect></_>
    <_>
      <rect>
        13 16 2 1</rect></_>
    <_>
      <rect>
        13 17 1 1</rect></_>
    <_>
      <rect>
        13 20 10 9</rect></_>
    <_>
      <rect>
        13 24 3 1</rect></_>
    <_>
      <rect>
        13 25 2 1</rect></_>
    <_>
      <rect>
        13 31 1 1</rect></_>
    <_>
      <rect>
        13 47 2 1</rect></_>
    <_>
      <rect>
        14 0 2 3</rect></_>
    <_>
      <rect>
        14 2 12 14</rect></_>
    <_>
      <rect>
        14 11 9 12</rect></_>
    <_>
      <rect>
        14 17 4 1</rect></_>
    <_>
      <rect>
        14 18 3 1</rect></_>
    <_>
      <rect>
        14 36 3 1</rect></_>
    <_>
      <rect>
        15 0 3 1</rect></_>
    <_>
      <rect>
        15 0 4 1</rect></_>
    <_>
      <rect>
        15 4 10 8</rect></_>
    <_>
      <rect>
        15 5 1 3</rect></_>
    <_>
      <rect>
        15 36 7 1</rect></_>
    <_>
      <rect>
        15 44 1 2</rect></_>
    <_>
      <rect>
        15 44 8 2</rect></_>
    <_>
      <rect>
        15 47 3 1</rect></_>
    <_>
      <rect>
        16 22 7 9</rect></_>
    <_>
      <rect>
        17 0 2 1</rect></_>
    <_>
      <rect>
        17 0 11 4</rect></_>
    <_>
      <rect>
        17 1 11 10</rect></_>
    <_>
      <rect>
        17 7 9 8</rect></_>
    <_>
      <rect>
        17 23 3 1</rect></_>
    <_>
      <rect>
        17 24 4 1</rect></_>
    <_>
      <rect>
        18 0 3 5</rect></_>
    <_>
      <rect>
        18 13 3 1</rect></_>
    <_>
      <rect>
        18 14 1 1</rect></_>
    <_>
      <rect>
        18 22 1 1</rect></_>
    <_>
      <rect>
        19 13 9 12</rect></_>
    <_>
      <rect>
        19 21 3 1</rect></_>
    <_>
      <rect>
        19 37 7 2</rect></_>
    <_>
      <rect>
        19 38 8 4</rect></_>
    <_>
      <rect>
        20 0 1 1</rect></_>
    <_>
      <rect>
        20 0 2 2</rect></_>
    <_>
      <rect>
        20 0 10 12</rect></_>
    <_>
      <rect>
        20 0 10 15</rect></_>
    <_>
      <rect>
        20 23 7 7</rect></_>
    <_>
      <rect>
        20 32 10 6</rect></_>
    <_>
      <rect>
        20 44 4 2</rect></_>
    <_>
      <rect>
        22 0 3 7</rect></_>
    <_>
      <rect>
        22 0 4 1</rect></_>
    <_>
      <rect>
        22 0 7 3</rect></_>
    <_>
      <rect>
        22 20 7 8</rect></_>
    <_>
      <rect>
        22 47 2 1</rect></_>
    <_>
      <rect>
        23 0 2 1</rect></_>
    <_>
      <rect>
        23 2 9 2</rect></_>
    <_>
      <rect>
        23 17 9 8</rect></_>
    <_>
      <rect>
        23 27 8 7</rect></_>
    <_>
      <rect>
        23 30 1 1</rect></_>
    <_>
      <rect>
        23 30 9 4</rect></_>
    <_>
      <rect>
        23 47 2 1</rect></_>
    <_>
      <rect>
        24 5 5 6</rect></_>
    <_>
      <rect>
        24 19 6 2</rect></_>
    <_>
      <rect>
        25 0 8 7</rect></_>
    <_>
      <rect>
        25 0 8 9</rect></_>
    <_>
      <rect>
        25 2 8 3</rect></_>
    <_>
      <rect>
        25 4 8 13</rect></_>
    <_>
      <rect>
        25 17 8 11</rect></_>
    <_>
      <rect>
        25 19 5 5</rect></_>
    <_>
      <rect>
        25 22 3 3</rect></_>
    <_>
      <rect>
        25 24 1 1</rect></_>
    <_>
      <rect>
        25 33 6 5</rect></_>
    <_>
      <rect>
        25 47 3 1</rect></_>
    <_>
      <rect>
        26 11 8 9</rect></_>
    <_>
      <rect>
        26 15 4 1</rect></_>
    <_>
      <rect>
        26 18 8 8</rect></_>
    <_>
      <rect>
        26 23 8 9</rect></_>
    <_>
      <rect>
        26 25 8 4</rect></_>
    <_>
      <rect>
        26 38 8 4</rect></_>
    <_>
      <rect>
        27 0 2 1</rect></_>
    <_>
      <rect>
        27 0 2 2</rect></_>
    <_>
      <rect>
        27 0 4 1</rect></_>
    <_>
      <rect>
        27 19 7 2</rect></_>
    <_>
      <rect>
        27 30 1 1</rect></_>
    <_>
      <rect>
        28 0 1 1</rect></_>
    <_>
      <rect>
        28 0 2 1</rect></_>
    <_>
      <rect>
        28 0 7 12</rect></_>
    <_>
      <rect>
        28 19 2 1</rect></_>
    <_>
      <rect>
        28 20 1 1</rect></_>
    <_>
      <rect>
        29 0 7 4</rect></_>
    <_>
      <rect>
        29 0 7 7</rect></_>
    <_>
      <rect>
        29 5 7 15</rect></_>
    <_>
      <rect>
        29 11 4 4</rect></_>
    <_>
      <rect>
        29 14 7 10</rect></_>
    <_>
      <rect>
        29 19 4 3</rect></_>
    <_>
      <rect>
        29 20 4 2</rect></_>
    <_>
      <rect>
        29 29 4 1</rect></_>
    <_>
      <rect>
        30 0 2 2</rect></_>
    <_>
      <rect>
        30 0 3 1</rect></_>
    <_>
      <rect>
        30 20 4 1</rect></_>
    <_>
      <rect>
        30 24 1 1</rect></_>
    <_>
      <rect>
        30 32 3 2</rect></_>
    <_>
      <rect>
        30 47 1 1</rect></_>
    <_>
      <rect>
        31 19 1 1</rect></_>
    <_>
      <rect>
        31 21 1 1</rect></_>
    <_>
      <rect>
        31 21 4 1</rect></_>
    <_>
      <rect>
        31 25 2 1</rect></_>
    <_>
      <rect>
        31 26 2 1</rect></_>
    <_>
      <rect>
        31 27 1 1</rect></_>
    <_>
      <rect>
        32 0 2 2</rect></_>
    <_>
      <rect>
        32 0 6 4</rect></_>
    <_>
      <rect>
        32 2 6 5</rect></_>
    <_>
      <rect>
        32 9 6 7</rect></_>
    <_>
      <rect>
        32 21 6 7</rect></_>
    <_>
      <rect>
        32 27 6 2</rect></_>
    <_>
      <rect>
        32 30 2 1</rect></_>
    <_>
      <rect>
        32 47 1 1</rect></_>
    <_>
      <rect>
        32 47 2 1</rect></_>
    <_>
      <rect>
        34 0 2 3</rect></_>
    <_>
      <rect>
        34 0 5 3</rect></_>
    <_>
      <rect>
        35 0 4 2</rect></_>
    <_>
      <rect>
        35 0 5 7</rect></_>
    <_>
      <rect>
        35 0 5 10</rect></_>
    <_>
      <rect>
        35 8 5 7</rect></_>
    <_>
      <rect>
        35 15 5 4</rect></_>
    <_>
      <rect>
        35 20 5 10</rect></_>
    <_>
      <rect>
        35 32 5 6</rect></_>
    <_>
      <rect>
        35 47 1 1</rect></_>
    <_>
      <rect>
        36 14 1 1</rect></_>
    <_>
      <rect>
        36 47 1 1</rect></_>
    <_>
      <rect>
        37 0 1 1</rect></_>
    <_>
      <rect>
        37 3 4 15</rect></_>
    <_>
      <rect>
        37 11 2 4</rect></_>
    <_>
      <rect>
        37 21 4 2</rect></_>
    <_>
      <rect>
        37 22 1 9</rect></_>
    <_>
      <rect>
        37 31 1 1</rect></_>
    <_>
      <rect>
        37 46 1 1</rect></_>
    <_>
      <rect>
        38 0 4 6</rect></_>
    <_>
      <rect>
        38 8 4 14</rect></_>
    <_>
      <rect>
        38 17 4 5</rect></_>
    <_>
      <rect>
        38 22 4 5</rect></_>
    <_>
      <rect>
        38 28 4 7</rect></_>
    <_>
      <rect>
        38 47 2 1</rect></_>
    <_>
      <rect>
        39 47 2 1</rect></_>
    <_>
      <rect>
        40 26 1 1</rect></_>
    <_>
      <rect>
        41 0 3 2</rect></_>
    <_>
      <rect>
        41 1 3 3</rect></_>
    <_>
      <rect>
        41 3 3 3</rect></_>
    <_>
      <rect>
        41 23 3 9</rect></_>
    <_>
      <rect>
        41 47 1 1</rect></_>
    <_>
      <rect>
        42 0 2 4</rect></_>
    <_>
      <rect>
        44 1 2 15</rect></_>
    <_>
      <rect>
        44 41 2 3</rect></_>
    <_>
      <rect>
        44 45 1 1</rect></_>
    <_>
      <rect>
        44 47 1 1</rect></_>
    <_>
      <rect>
        46 45 1 1</rect></_>
    <_>
      <rect>
        46 46 1 1</rect></_>
    <_>
      <rect>
        47 24 1 1</rect></_>
    <_>
      <rect>
        47 39 1 1</rect></_>
    <_>
      <rect>
        47 47 1 1</rect></_></features></cascade>
</opencv_storage>
